Language model created by QuickLM on Wed Jul 18 16:10:39 EDT 2018
Copyright (c) 1996-2010 Carnegie Mellon University and Alexander I. Rudnicky

The model is in standard ARPA format, designed by Doug Paul while he was at MITRE.

The code that was used to produce this language model is available in Open Source.
Please visit http://www.speech.cs.cmu.edu/tools/ for more information

The (fixed) discount mass is 0.5. The backoffs are computed using the ratio method.
This model based on a corpus of 14 sentences and 19 words

\data\
ngram 1=19
ngram 2=31
ngram 3=24

\1-grams:
-0.8792 </s> -0.3010
-0.8792 <s> -0.2395
-2.0253 AT -0.2843
-1.5482 BOT -0.2395
-2.0253 CANCEL -0.2395
-2.0253 FOLLOW -0.2843
-1.7243 FOLLOWING -0.2843
-2.0253 HELLO -0.2395
-2.0253 HEY -0.2886
-2.0253 HI -0.2886
-2.0253 LOOK -0.2969
-1.4232 ME -0.2395
-2.0253 MIND -0.2395
-2.0253 NEVER -0.2969
-2.0253 ODBOT -0.2395
-2.0253 ODD -0.2886
-2.0253 SHUTDOWN -0.2395
-1.7243 START -0.2300
-1.7243 STOP -0.2300

\2-grams:
-1.4472 <s> CANCEL 0.0000
-1.4472 <s> FOLLOW 0.0000
-1.4472 <s> HELLO 0.0000
-1.4472 <s> HEY 0.0000
-1.4472 <s> HI 0.0000
-1.4472 <s> LOOK 0.0000
-1.4472 <s> NEVER 0.0000
-1.4472 <s> ODBOT 0.0000
-1.4472 <s> ODD 0.0000
-1.4472 <s> SHUTDOWN 0.0000
-1.1461 <s> START 0.0000
-1.1461 <s> STOP 0.0000
-0.3010 AT ME 0.0000
-0.3010 BOT </s> -0.3010
-0.3010 CANCEL </s> -0.3010
-0.3010 FOLLOW ME 0.0000
-0.3010 FOLLOWING ME 0.0000
-0.3010 HELLO </s> -0.3010
-0.3010 HEY BOT 0.0000
-0.3010 HI BOT 0.0000
-0.3010 LOOK AT 0.0000
-0.3010 ME </s> -0.3010
-0.3010 MIND </s> -0.3010
-0.3010 NEVER MIND 0.0000
-0.3010 ODBOT </s> -0.3010
-0.3010 ODD BOT 0.0000
-0.3010 SHUTDOWN </s> -0.3010
-0.6021 START </s> -0.3010
-0.6021 START FOLLOWING 0.0000
-0.6021 STOP </s> -0.3010
-0.6021 STOP FOLLOWING 0.0000

\3-grams:
-0.3010 <s> CANCEL </s>
-0.3010 <s> FOLLOW ME
-0.3010 <s> HELLO </s>
-0.3010 <s> HEY BOT
-0.3010 <s> HI BOT
-0.3010 <s> LOOK AT
-0.3010 <s> NEVER MIND
-0.3010 <s> ODBOT </s>
-0.3010 <s> ODD BOT
-0.3010 <s> SHUTDOWN </s>
-0.6021 <s> START </s>
-0.6021 <s> START FOLLOWING
-0.6021 <s> STOP </s>
-0.6021 <s> STOP FOLLOWING
-0.3010 AT ME </s>
-0.3010 FOLLOW ME </s>
-0.3010 FOLLOWING ME </s>
-0.3010 HEY BOT </s>
-0.3010 HI BOT </s>
-0.3010 LOOK AT ME
-0.3010 NEVER MIND </s>
-0.3010 ODD BOT </s>
-0.3010 START FOLLOWING ME
-0.3010 STOP FOLLOWING ME

\end\
